<?xml version="1.0"?>
<opencv_storage>
<cascade>
  <stageType>BOOST</stageType>
  <featureType>HAAR</featureType>
  <height>24</height>
  <width>36</width>
  <stageParams>
    <boostType>GAB</boostType>
    <minHitRate>9.9500000476837158e-01</minHitRate>
    <maxFalseAlarm>5.0000000000000000e-01</maxFalseAlarm>
    <weightTrimRate>9.4999998807907104e-01</weightTrimRate>
    <maxDepth>1</maxDepth>
    <maxWeakCount>100</maxWeakCount></stageParams>
  <featureParams>
    <maxCatCount>0</maxCatCount>
    <featSize>1</featSize>
    <mode>BASIC</mode></featureParams>
  <stageNum>15</stageNum>
  <stages>
    <!-- stage 0 -->
    <_>
      <maxWeakCount>1</maxWeakCount>
      <stageThreshold>1.</stageThreshold>
      <weakClassifiers>
        <_>
          <internalNodes>
            0 -1 4 -2.7078462764620781e-02</internalNodes>
          <leafValues>
            1. -1.</leafValues></_></weakClassifiers></_>
    <!-- stage 1 -->
    <_>
      <maxWeakCount>2</maxWeakCount>
      <stageThreshold>4.4064179062843323e-02</stageThreshold>
      <weakClassifiers>
        <_>
          <internalNodes>
            0 -1 6 -9.3069419264793396e-02</internalNodes>
          <leafValues>
            1. -9.1304349899291992e-01</leafValues></_>
        <_>
          <internalNodes>
            0 -1 5 -1.3997362554073334e-01</internalNodes>
          <leafValues>
            9.5710766315460205e-01 -1.</leafValues></_></weakClassifiers></_>
    <!-- stage 2 -->
    <_>
      <maxWeakCount>2</maxWeakCount>
      <stageThreshold>1.2423915416002274e-01</stageThreshold>
      <weakClassifiers>
        <_>
          <internalNodes>
            0 -1 0 4.6471054665744305e-03</internalNodes>
          <leafValues>
            -6.8000000715255737e-01 9.5121949911117554e-01</leafValues></_>
        <_>
          <internalNodes>
            0 -1 10 -7.2186002507805824e-03</internalNodes>
          <leafValues>
            8.0423915386199951e-01 -1.</leafValues></_></weakClassifiers></_>
    <!-- stage 3 -->
    <_>
      <maxWeakCount>2</maxWeakCount>
      <stageThreshold>8.2902237772941589e-02</stageThreshold>
      <weakClassifiers>
        <_>
          <internalNodes>
            0 -1 18 -2.9444981366395950e-02</internalNodes>
          <leafValues>
            1. -6.9230771064758301e-01</leafValues></_>
        <_>
          <internalNodes>
            0 -1 23 3.2264715991914272e-03</internalNodes>
          <leafValues>
            7.9856449365615845e-01 -9.1709774732589722e-01</leafValues></_></weakClassifiers></_>
    <!-- stage 4 -->
    <_>
      <maxWeakCount>2</maxWeakCount>
      <stageThreshold>1.3724055886268616e-01</stageThreshold>
      <weakClassifiers>
        <_>
          <internalNodes>
            0 -1 9 3.4166867844760418e-03</internalNodes>
          <leafValues>
            -6.1538463830947876e-01 9.4999998807907104e-01</leafValues></_>
        <_>
          <internalNodes>
            0 -1 16 -9.3185796868056059e-04</internalNodes>
          <leafValues>
            7.9115056991577148e-01 -8.1275945901870728e-01</leafValues></_></weakClassifiers></_>
    <!-- stage 5 -->
    <_>
      <maxWeakCount>3</maxWeakCount>
      <stageThreshold>5.4048746824264526e-01</stageThreshold>
      <weakClassifiers>
        <_>
          <internalNodes>
            0 -1 12 -4.0456349961459637e-04</internalNodes>
          <leafValues>
            7.5510203838348389e-01 -8.8235294818878174e-01</leafValues></_>
        <_>
          <internalNodes>
            0 -1 13 -3.8321712054312229e-04</internalNodes>
          <leafValues>
            -8.9465659856796265e-01 7.9453331232070923e-01</leafValues></_>
        <_>
          <internalNodes>
            0 -1 26 3.3197354059666395e-04</internalNodes>
          <leafValues>
            6.8004202842712402e-01 -9.1993176937103271e-01</leafValues></_></weakClassifiers></_>
    <!-- stage 6 -->
    <_>
      <maxWeakCount>1</maxWeakCount>
      <stageThreshold>7.9591834545135498e-01</stageThreshold>
      <weakClassifiers>
        <_>
          <internalNodes>
            0 -1 27 7.0136872818693519e-04</internalNodes>
          <leafValues>
            7.9591834545135498e-01 -1.</leafValues></_></weakClassifiers></_>
    <!-- stage 7 -->
    <_>
      <maxWeakCount>2</maxWeakCount>
      <stageThreshold>-1.4986957609653473e-01</stageThreshold>
      <weakClassifiers>
        <_>
          <internalNodes>
            0 -1 7 -3.3163186162710190e-03</internalNodes>
          <leafValues>
            7.9166668653488159e-01 -8.8888889551162720e-01</leafValues></_>
        <_>
          <internalNodes>
            0 -1 14 -1.3688771985471249e-02</internalNodes>
          <leafValues>
            -1. 7.3901933431625366e-01</leafValues></_></weakClassifiers></_>
    <!-- stage 8 -->
    <_>
      <maxWeakCount>2</maxWeakCount>
      <stageThreshold>9.8790384829044342e-02</stageThreshold>
      <weakClassifiers>
        <_>
          <internalNodes>
            0 -1 28 4.8262923955917358e-03</internalNodes>
          <leafValues>
            -5.8333331346511841e-01 8.5714286565780640e-01</leafValues></_>
        <_>
          <internalNodes>
            0 -1 24 3.0167069053277373e-04</internalNodes>
          <leafValues>
            8.2575577497482300e-01 -7.5835245847702026e-01</leafValues></_></weakClassifiers></_>
    <!-- stage 9 -->
    <_>
      <maxWeakCount>2</maxWeakCount>
      <stageThreshold>-1.6503828763961792e-01</stageThreshold>
      <weakClassifiers>
        <_>
          <internalNodes>
            0 -1 1 -5.5488786892965436e-04</internalNodes>
          <leafValues>
            -8.8235294818878174e-01 7.5510203838348389e-01</leafValues></_>
        <_>
          <internalNodes>
            0 -1 17 2.2142811212688684e-04</internalNodes>
          <leafValues>
            7.1731466054916382e-01 -1.</leafValues></_></weakClassifiers></_>
    <!-- stage 10 -->
    <_>
      <maxWeakCount>1</maxWeakCount>
      <stageThreshold>6.9230771064758301e-01</stageThreshold>
      <weakClassifiers>
        <_>
          <internalNodes>
            0 -1 15 3.7807691842317581e-04</internalNodes>
          <leafValues>
            6.9230771064758301e-01 -1.</leafValues></_></weakClassifiers></_>
    <!-- stage 11 -->
    <_>
      <maxWeakCount>2</maxWeakCount>
      <stageThreshold>9.1666184365749359e-02</stageThreshold>
      <weakClassifiers>
        <_>
          <internalNodes>
            0 -1 21 -3.8462388329207897e-04</internalNodes>
          <leafValues>
            -7.1428573131561279e-01 8.2222223281860352e-01</leafValues></_>
        <_>
          <internalNodes>
            0 -1 3 -8.6722366511821747e-02</internalNodes>
          <leafValues>
            -7.3055601119995117e-01 9.1292452812194824e-01</leafValues></_></weakClassifiers></_>
    <!-- stage 12 -->
    <_>
      <maxWeakCount>3</maxWeakCount>
      <stageThreshold>8.1051820516586304e-01</stageThreshold>
      <weakClassifiers>
        <_>
          <internalNodes>
            0 -1 11 2.1645688684657216e-04</internalNodes>
          <leafValues>
            7.5510203838348389e-01 -8.8235294818878174e-01</leafValues></_>
        <_>
          <internalNodes>
            0 -1 22 4.7827768139541149e-04</internalNodes>
          <leafValues>
            7.6874542236328125e-01 -9.4458383321762085e-01</leafValues></_>
        <_>
          <internalNodes>
            0 -1 25 6.5296351909637451e-02</internalNodes>
          <leafValues>
            -7.0636117458343506e-01 1.</leafValues></_></weakClassifiers></_>
    <!-- stage 13 -->
    <_>
      <maxWeakCount>1</maxWeakCount>
      <stageThreshold>6.6037738323211670e-01</stageThreshold>
      <weakClassifiers>
        <_>
          <internalNodes>
            0 -1 8 -5.1079265540465713e-04</internalNodes>
          <leafValues>
            -1. 6.6037738323211670e-01</leafValues></_></weakClassifiers></_>
    <!-- stage 14 -->
    <_>
      <maxWeakCount>3</maxWeakCount>
      <stageThreshold>8.3842819929122925e-01</stageThreshold>
      <weakClassifiers>
        <_>
          <internalNodes>
            0 -1 2 1.9008979201316833e-02</internalNodes>
          <leafValues>
            -6.3636362552642822e-01 8.1818181276321411e-01</leafValues></_>
        <_>
          <internalNodes>
            0 -1 20 -1.7371587455272675e-02</internalNodes>
          <leafValues>
            -9.4036930799484253e-01 7.0802211761474609e-01</leafValues></_>
        <_>
          <internalNodes>
            0 -1 19 1.0048579424619675e-03</internalNodes>
          <leafValues>
            -6.4277637004852295e-01 9.6061569452285767e-01</leafValues></_></weakClassifiers></_></stages>
  <features>
    <_>
      <rects>
        <_>
          0 0 1 14 -1.</_>
        <_>
          0 7 1 7 2.</_></rects>
      <tilted>0</tilted></_>
    <_>
      <rects>
        <_>
          0 0 1 20 -1.</_>
        <_>
          0 10 1 10 2.</_></rects>
      <tilted>0</tilted></_>
    <_>
      <rects>
        <_>
          0 1 9 10 -1.</_>
        <_>
          0 6 9 5 2.</_></rects>
      <tilted>0</tilted></_>
    <_>
      <rects>
        <_>
          0 1 35 22 -1.</_>
        <_>
          0 12 35 11 2.</_></rects>
      <tilted>0</tilted></_>
    <_>
      <rects>
        <_>
          0 6 14 15 -1.</_>
        <_>
          7 6 7 15 2.</_></rects>
      <tilted>0</tilted></_>
    <_>
      <rects>
        <_>
          0 6 36 10 -1.</_>
        <_>
          12 6 12 10 3.</_></rects>
      <tilted>0</tilted></_>
    <_>
      <rects>
        <_>
          0 8 36 5 -1.</_>
        <_>
          12 8 12 5 3.</_></rects>
      <tilted>0</tilted></_>
    <_>
      <rects>
        <_>
          0 14 8 10 -1.</_>
        <_>
          4 14 4 10 2.</_></rects>
      <tilted>0</tilted></_>
    <_>
      <rects>
        <_>
          0 17 3 7 -1.</_>
        <_>
          1 17 1 7 3.</_></rects>
      <tilted>0</tilted></_>
    <_>
      <rects>
        <_>
          1 0 1 10 -1.</_>
        <_>
          1 5 1 5 2.</_></rects>
      <tilted>0</tilted></_>
    <_>
      <rects>
        <_>
          2 8 33 4 -1.</_>
        <_>
          2 10 33 2 2.</_></rects>
      <tilted>0</tilted></_>
    <_>
      <rects>
        <_>
          2 16 2 3 -1.</_>
        <_>
          3 16 1 3 2.</_></rects>
      <tilted>0</tilted></_>
    <_>
      <rects>
        <_>
          5 21 12 3 -1.</_>
        <_>
          11 21 6 3 2.</_></rects>
      <tilted>0</tilted></_>
    <_>
      <rects>
        <_>
          7 20 2 1 -1.</_>
        <_>
          8 20 1 1 2.</_></rects>
      <tilted>0</tilted></_>
    <_>
      <rects>
        <_>
          8 15 18 6 -1.</_>
        <_>
          14 15 6 6 3.</_></rects>
      <tilted>0</tilted></_>
    <_>
      <rects>
        <_>
          9 18 2 4 -1.</_>
        <_>
          10 18 1 4 2.</_></rects>
      <tilted>0</tilted></_>
    <_>
      <rects>
        <_>
          10 17 10 7 -1.</_>
        <_>
          15 17 5 7 2.</_></rects>
      <tilted>0</tilted></_>
    <_>
      <rects>
        <_>
          11 20 2 2 -1.</_>
        <_>
          12 20 1 2 2.</_></rects>
      <tilted>0</tilted></_>
    <_>
      <rects>
        <_>
          15 10 21 8 -1.</_>
        <_>
          22 10 7 8 3.</_></rects>
      <tilted>0</tilted></_>
    <_>
      <rects>
        <_>
          15 15 3 3 -1.</_>
        <_>
          15 16 3 1 3.</_></rects>
      <tilted>0</tilted></_>
    <_>
      <rects>
        <_>
          15 15 15 6 -1.</_>
        <_>
          20 15 5 6 3.</_></rects>
      <tilted>0</tilted></_>
    <_>
      <rects>
        <_>
          15 19 3 4 -1.</_>
        <_>
          16 19 1 4 3.</_></rects>
      <tilted>0</tilted></_>
    <_>
      <rects>
        <_>
          15 20 3 4 -1.</_>
        <_>
          16 20 1 4 3.</_></rects>
      <tilted>0</tilted></_>
    <_>
      <rects>
        <_>
          17 8 18 10 -1.</_>
        <_>
          23 8 6 10 3.</_></rects>
      <tilted>0</tilted></_>
    <_>
      <rects>
        <_>
          17 23 6 1 -1.</_>
        <_>
          19 23 2 1 3.</_></rects>
      <tilted>0</tilted></_>
    <_>
      <rects>
        <_>
          18 4 18 9 -1.</_>
        <_>
          18 7 18 3 3.</_></rects>
      <tilted>0</tilted></_>
    <_>
      <rects>
        <_>
          30 22 1 2 -1.</_>
        <_>
          30 23 1 1 2.</_></rects>
      <tilted>0</tilted></_>
    <_>
      <rects>
        <_>
          32 15 2 6 -1.</_>
        <_>
          32 15 1 3 2.</_>
        <_>
          33 18 1 3 2.</_></rects>
      <tilted>0</tilted></_>
    <_>
      <rects>
        <_>
          34 2 2 15 -1.</_>
        <_>
          34 7 2 5 3.</_></rects>
      <tilted>0</tilted></_></features></cascade>
</opencv_storage>
